{"total_layers": 4, "nodes_per_layer": [35, 10, 2, 10, 35], "learning_rate": 0.1, "activation_functions": [["RELU", null], ["LINEAL", null], ["SIGMOIDAL", 0.8]], "weights": [[[1.4214010797322452, 8.300801874070181, 1.7289166718459115, 1.533318347309472, -6.211004454912526, 0.43024666148983487, -19.168958700762325, 5.815177152282608, -0.9828243513770181, 1.008140025932357, 1.0714099728950686, 0.46174410883394457, -65.70916036249055, -0.4443550363355643, 0.9218751318673037, 0.9218390778574421, -2.071512167082299, 1.2759891808517132, 0.5189060402131473, -1.6431537732735717, 2.910386000407843, 6.524663555521989, -10.62729885048286, -5.970592653706369, -2.0195146102676667, 1.7008857875871033, 9.045676007218635, 12.44072358343268, -1.8397702272502097, 1.938995522957777, 0.13328860656717167, 1.2105751936278146, -0.04571350506232418, 0.4339839397893979, -2.0287322379260457], [-0.6337376008300826, 1.2642320154209412, 0.08830162279654419, 1.0593104165879188, 0.7314745038250094, -0.8311659097783435, -6.152177085491859, 2.8782799209435534, 5.401921626393451, 0.17257945416111398, 0.22898424016107344, 4.372136022918555, -0.27982562344131956, -2.687593570744184, -0.8585146704518667, -0.11065902338723888, -6.124141069212129, -0.6614349922798228, 3.451941261630698, -0.40239555815203604, 0.4235967699342593, 3.0053579278991247, -1.6161826651651054, -2.302988242547958, 3.428184886092585, -0.9382855040755917, -0.03422488736078533, -0.21430605575328943, -1.3161436949932255, -0.23597410622668946, -0.7990220912409782, 0.9911716980787155, -1.02980162563049, -0.8456678488438378, 1.269640797172588], [3.9654712705892146, 1.009969424095234, -2.0340978784069073, -1.1571760594140674, 1.0392027377767155, -1.4073105672337063, 3.7700090066988445, 13.10864317496333, 1.4555911861210709, 0.46732665621170244, -0.4422163466090482, 0.05308751994898184, -14.851657271054965, -2.044035647168927, -0.5991195274023283, 1.0930347568826944, 14.919903484242624, 1.0655005179660606, 1.9354420217146233, -2.552267314454138, 0.41913812152695573, -1.5328506685649836, -4.200570414680149, 1.0568326678802982, 2.738772681163456, 0.5152395911829496, -2.292800275027763, 1.8830833716748483, -0.8223650867119655, 2.2080277706553253, -0.3144428908688047, 0.3872553693533355, 0.6253892805269916, 0.30777858769592176, 0.9306352855417843], [-0.8042007295877922, 0.5185449242292011, -0.49644823184198045, 0.6876073234330926, -0.010506068713915892, -0.6041881090094429, 0.24681217526179686, 0.32102691325910415, -0.5394817291551612, 1.3592100576601263, 0.3609147820697959, -1.9616114285737047, 1.390888932175659, 2.231490017578744, -0.2549573866426775, 0.24518224830943583, -1.6772846559171268, -0.10242292149911358, -0.18790715105231948, 0.5323761277083376, 0.21140588770971727, 1.0488183548488224, 0.9995380871692917, -1.2132027642814012, 0.122445722890876, 0.7524626250560765, 1.8782843712596167, -4.224789141316518, 0.09595653971642282, -1.4715148347192677, -1.045955496606601, 0.5171406057108229, -0.21177629177123014, 0.5129534801760199, 1.879760164025654], [-0.8752230826447258, 0.21104751830680746, -0.05502460343159135, 0.9391287782632807, -0.5890722834222065, -0.15651557976197028, -3.644251012598251, 1.1747268624775933, 2.958344635101021, 0.24051899983209804, 0.2917026599081085, 1.6967921224968698, 0.457503598581724, 0.3250667783353227, 0.061826666573383295, 1.3278885681287003, 1.4418565877359102, 0.8198516471816539, -0.6787384577749789, -0.002028292901505916, -0.9801163763648599, -0.8092376783044604, -0.8045089847718383, -2.6407788912264323, 0.8097981096625828, -0.48941212267697265, 1.0516810817794728, 0.8231688302828288, -3.6732718221164333, 0.338389842663813, -0.07734232767474686, -0.16056454490776995, 0.16317940826584776, -0.8712051389661913, 0.9571138440406795], [1.815050998559125, -0.6814444457301111, 1.0575044811677552, -0.18744910300024104, -0.5292929964104356, 0.6569802047042017, 0.07275972501186234, 6.121342147506137, -3.297002538733741, -0.026231142490649312, 1.2945758655236483, 2.568808102657218, -3.446912644542537, -0.5510684976898927, 0.16054120251364165, 0.1415005191083425, -4.653354725023858, 1.2403768747432704, 1.2059030550947587, 2.603442302021375, -1.4123648489461587, -1.0806927871655811, -5.6240294962359165, 4.20839736138523, -3.6511727237272367, -1.88327388547115, 1.241611343457181, 4.622663493012458, -1.1726686336322059, -1.9561191715760853, 3.1263260350644733, -4.176283814382216, -2.336864613914178, 6.340375307886247, -2.2878261320820727], [-3.7568110601371814, 2.7065807601100174, -1.0272641062415213, -1.3183174266818793, 0.4847729793882094, -0.6853628128109828, -4.643116369760215, -1.089288353172733, 1.8287447985078795, -4.128085149159775, 4.891345299114499, 1.598089293843645, -2.3763152169657378, 3.1977272596437807, -0.1367062593957009, -1.988193470883171, 0.60956620748434, 2.698492275636414, -6.3810942236189705, -0.2596441754913039, 0.10233990910715968, -1.4577317938253205, 1.1980188750017966, 1.8852757192135625, -3.7078606913428107, 0.5882005981540763, 3.6350820672453468, -0.4113048240334032, -0.3454347319128588, -2.7686976190012134, -1.083439667886416, 1.9847968539810243, -1.852533493042238, -0.4528135724050757, 1.0882983081056274], [-0.8059335192310928, 0.4529802305147298, 0.454900652184412, -0.4110804970783336, -0.003427340285196756, -0.5647172052081051, -1.7652354489835793, 4.709055807778358, -2.535140603706013, -1.0812507563541713, 0.7882546782294935, 2.316902872132784, -2.9543066969332106, -0.730519152689811, -0.45480346618017686, 2.1189444613552766, 5.8099167091609925, -1.1707398361105026, 1.7634131776443316, -9.585580546778502, -3.3297696572780078, 7.551524178915064, -1.2166426922989186, 3.8581868250751366, 0.8863677476442534, -1.282124850733465, 1.5715587121555206, 2.0665111114350414, 1.9433418203630353, 1.0591736750677705, -0.6421509942163193, 0.24235666409104428, 0.16650840423571311, -1.3863128296790144, -8.626768006072519], [1.0452952259514892, -0.41135650307975313, -0.5600726415502945, 1.1058293009667377, -0.7012210538399157, 0.7195227679402335, -4.906660423249197, 4.452485315816902, -0.19804138459181786, 0.6605951020417145, -0.21832533224348977, 2.0156503758508197, -1.0509729708793383, 0.0008219162360916243, 0.14076557776644832, -2.3092852150756364, 2.0570888577752013, 0.2989836879542255, -1.12458489240566, 0.3451038969960758, -1.5439338806992426, -0.9185375106740358, 0.1811908529472711, -2.1875658810311336, 1.517686289514576, 1.2945532810994962, 1.187156514643581, 0.5314704145182714, -0.31175043625565313, -1.693953791456854, 0.542184219224521, -2.221813689233333, 1.0860516395547495, -0.5690757502392825, 0.43396798830001043], [-0.5283577591745566, -2.1015875155773758, -0.8370829807189988, 0.5571833541327574, 0.996903420212756, 4.149433726687355, 2.8266937518974538, -2.099610101599291, -2.160764351700131, 0.044793404511363155, -0.46760729936483403, 1.8847269522956132, 4.061084562363159, 2.412968009390336, 2.625936631940453, -7.1017393474414545, -4.847905530938213, 1.3450845275544505, 0.7780448148898924, 2.4003235650671497, 0.08765103131759103, -1.8981504467907757, 1.1097078702783092, 0.7848736685758331, -0.009136020946658996, 0.1402712489200389, -123.89398958137764, -2.6236568038309445, 1.4571283135062745, -2.0348035541899367, 0.883511642258904, -4.167112643113406, 1.710715700964997, 0.12251291206586656, 1.100441523298026]], [[-0.3482455889083206, 0.5949285713913381, -0.5562514781260093, -0.5963912131385374, 0.45227430259121487, 0.21540265516151064, 1.1054764407683841, -1.085166664445464, 0.009458551362242816, -0.1555716462119361], [-0.09236360672537473, 1.186914639524675, -0.6061633890354865, -0.46493223651762083, -1.8935608548859533, -0.4360030357281595, 1.9547982302942422, -0.019599754755439815, -0.6564161944906406, -0.16270662595648616]], [[-0.3428776162530353, 0.19964557430197308], [-0.7979857746397945, 0.7829411557420314], [1.069491986341476, -0.6258809228809197], [25.965566507245942, 1.118508712368796], [-0.09712779468939842, 1.7689180965949725], [0.0681138125807026, 0.1716212108515703], [0.4466387511095884, -0.34084415052303024], [2.2036035615466374, -0.9092107938246198], [0.741751722067013, -0.8335299550507239], [1.1984314216005008, 0.3788143313980876]], [[0.07951475657209492, -0.4295063006887294, 2.23598786260198, 62.932788229829086, -245.77996095512648, -4.5536436786857, 11.336416964356804, -12.126581305607857, 1.8494684232583465, -111.94152787039964], [21.183882278358944, 6.953098396220289, -10487.488603095171, 10113325120941.926, 162395.69246491962, 54.57866051918657, -12.90132198575396, -72543955.43607634, 23.66801710758179, 370686.5932964091], [2.708135786773288, -1.4887701264556328, 8.106777212524104, 428522020964429.9, -0.6424885580621286, 4.084048656949259, -13.81612442833562, 1.1887387685993733, 1.7244217016595416, 6.422945916430976], [18.18476631588082, 2.4512411988477076, -9453.074744537775, 442876960735197.1, 142781.29097408504, 39.3801678554311, -1.4288055158245676, -49282120.25367394, 19.050766134500556, -2820077.379785443], [-1.07845989813952, -0.5994054498745631, 1.760155632010045, 51.36661116649103, -245.91708938152698, 2.8004770053117696, 9.948487405117085, -8.305265397912075, -0.6587202726222499, -94.53034587682313], [-0.9684442939922816, 0.1401227811296662, 12.208861251033092, -433977539642.9089, -11.671927133103678, 12.599586336433264, -6.405212986412981, -10.807912702586602, 6.628494682623761, -525.313090177611], [-4.804634522395628, 1.1079824402959058, 4.246869090699166, -222844.68662579783, -62.163315603152796, 11.66928413777998, -3.527451410588728, -5.470273818959727, -0.1656084363080797, 17.23051200280007], [-26.230452176380886, 12.580773858678313, -3.715090472457007, 584728753406432.2, -29187.039951690836, 13.693763460009595, -3.772127263542415, 1.898582999972956, -3.788220937825394, 42.69489928116192], [-29.37190842745294, -5.0778624567823565, 13.069716677576348, -9344369620198.344, 659.929378010542, 9.331215146640364, 0.7878844937652478, -46.884207771525446, 1.248195765084839, 5317.773628874938], [-0.0934156824546283, 0.5756600372881328, -1.3447650797407933, -400610079068031.5, -6.908018243282443, 6.873304120872397, 0.9423579020485231, 0.9584760323338357, 0.13231925019947893, -346.8104725214425], [-1.7564245096424551, 0.3799881473656528, -1.2438909105451488, -3.4559795591353684, -34.568670546500634, 20.384388216235887, -7.467999434651586, -23.439972407304662, 9.317940409510307, -115.89055795562237], [5.785439183815024, 0.8438060331855968, -90.31560139081267, -506980001623.292, -652598819.0168859, 139.81797706334135, -57.95372291782404, 5004.51297452368, -58.34649295993472, 3164376.499552875], [-3.1463612919145163, 0.7915249491582637, 8.493677824705662, 458569544791117.4, -5.992261505401152, 9.429577169693381, -6.683806411033042, -51.36797027254812, 0.7585863577786306, 7.680983265822427], [-2.342443007959315, 1.3729730229882604, 0.7682021171076973, -470172939363258.6, 125.73049008456653, -5.903902993633145, 1.0879783982032414, 2.988219741882913, -1.1083267000561503, -1578.9524706100985], [-1.9517659112888652, 0.8314744795114948, 2.1193815928384496, -11870.847064211153, -20.335709333460827, 6.6013213406006015, -0.4944041531145842, -24.91687955457822, 2.171432110078841, -20.15291455012031], [-4.251879608623785, 0.918163982947377, 53.49889468583725, 23.43173915489659, -19.127292973201204, 42.070881989826965, 4.563558461695129, -308.7613720600305, 8.379814178540927, -1306.8667475135037], [80.3533186554008, -20.75381576131002, -1153.9913532702385, 23.935394280165852, -2235598505.8289204, -153.44111726309626, 23.13005123838415, -79203.49293580916, 16.205847214346342, -5231375438.047515], [-0.8900150997328082, 0.29781346831939426, -1.8951886283094135, 49.23673706815509, -4615.506151822094, -20.522377852832808, -2.7107741380130603, 2212.5272757082485, 4.82098836283873, -1526.4224057970594], [0.6798110971818789, -0.990109550454204, -188.8238508643715, 23.80207140737454, -235.54615398365902, -405.0096928781897, 11.755171038129943, -515351.46362380934, 6.175383721606084, 721385.3593348315], [-0.37510343284863346, -1.6579919658578572, 10.827437681851551, 7.003001888393404, -10.7078160680554, 11.448893808298285, 3.8201308292939715, -281.3349353816532, -0.08319382262013622, 63.78037979185813], [-3.5558286123565845, 0.3823778457023734, 127.18339740143401, 22.87084671115715, -18.28614248677752, 40.66674229443207, 4.310675608963114, -722.9921325614795, 7.948669436284903, -1740.0808808956078], [1.5061727081439256, -0.7976109550996517, 1.482332771034193, -1.3409744283077888e+32, -173.85766856219428, -11.728754964551728, 2.1700992937295296, 4.260394403411523, -4.057162940750673, 544.9659681230687], [-3.001062764832129, 0.2979849538424808, 0.6239772949083721, 415585499305881.0, -4.6691072642235305, 11.879801952846323, -3.7990912036491244, 3.112369045314672, 0.9502359971014167, -76.85857529263495], [-1.7729539543525803, 0.8696127580981784, 21.452178729654356, -56424.42145061204, 40.3471761030275, 1.834419628887879, -8.657545701325942, -30.759359434853703, -0.7739574901695269, -60.907848666980634], [-1.6450508556751167, 1.7155840107740317, 8.967645875916167, 6.520950685598974, -4.129807374174876, 1.84712078654355, 2.58668250750073, -131.65622278944872, -0.4240391510629215, 13.548014267705701], [-0.9885541718380723, 0.3279403759544228, 0.45229776781067677, 22.86922971175156, -3.6843945790486323, 24.61587921159099, -3.0534950092925364, -19.972315223125953, 5.521372266502752, -421.16238084631124], [-4.626956623811463, -0.5411123945044444, 15.860098401641572, -4.4252207077274335, -1768.2348163710578, 27.167565172085503, -1.6867373295443577, -432.33054434679536, 0.3769464328300176, 152.95579050122737], [-22.701945960044505, -201.7496580986173, 6.847082274412849, 31.894815116463654, 22.619679514048144, 2.3606931723284337, -1.7741297142314683, 17.67391170166541, -10.220434560072087, 1474.7072152392575], [-2.832335543330194, 0.25872865742166484, -4.0832013072049484, -802.9313251869859, 2.0161727037098753, 7.495914134800555, -0.9843951077180244, -1.5578724525201224, 2.0759308817605513, -71.9143245094892], [-0.19961049252594787, 0.8452241793101603, 12.196058445825907, -18920128809.60799, -288.1750291874644, -1.3337991274374903, 2.0939150444679293, -16.21976616323921, -1.4972126767638263, 76.57131838702465], [-0.4180493971218334, -0.12936021513184368, 0.23418931874601928, -12091.027043024378, -0.0011073634707712277, -4.367661040854408, 1.34058290827289, -17.412294593058217, 3.070229831352084, 30.979727496750776], [1.5024496163801446, 4.179872509777467, -77.25217869074642, -25.67010261567654, 322.12980150780015, -5.359538866855777, -1.9437038004932339, 77.45958251956752, -5.098468048340377, 89.41938058354049], [6.5510323500396765, 2.629551818553798, -7.191818712367696, 8.929508733616983e+24, 10.22122195324173, 2.2530130756038464, -4.352570104757875, 24.940074407465264, -10.286804090887971, -413.7964866295581], [0.7614616301128692, 3.2004134045037187, -19.60113324563256, -80.52970766184555, 48.28017176348866, -15.899482924034796, 3.540356490851914, 17.975892257703045, -3.856201094012298, 158.53633891858306], [-1.6894691581162509, 1.2558068709148869, 8.251810383241382, -3.4368907683525762, -1.9173700774972564, 1.253373389682802, 2.3730545362053124, -28.283646370637065, -0.00039648426197864267, -20.14349282041007]]], "erros": [2.7450892191121934, 1.9898015512681784, 1.676792684873159, 1.5205183246076497, 1.4212351405909702, 1.3255066258198942, 1.2704795521763699, 1.2274244164761186, 1.1905920995961718, 1.133726746437076, 1.1099319843546473, 1.0905815056592159, 1.0753441932107002, 1.059177766243651, 1.0458158618285938, 1.0333518290439982, 1.020787317794105, 1.0093929099763352, 0.9987899708758491, 0.987132865167593, 0.9766288370813642, 0.966725679010302, 0.9589720806588401]}