{"total_layers": 4, "nodes_per_layer": [35, 20, 2, 20, 35], "learning_rate": 0.1, "activation_functions": [["LINEAL", null], ["STEP", null], ["SIGMOIDAL", 1]], "weights": [[[1.7062603597298274, 0.1288658087415196, -0.17206283846478973, -0.7018247296478042, 0.24733531173252057, -0.7690085647104573, -16.63210803936408, 1.9400548717712276, 17.538948749814317, 0.5903168703171271, 6.5581809680570124, 0.47196108375779594, -0.1734697831425688, 0.28661246402965046, 1.7602773711830706, -1.8995600002452342, -3.1395900556776537, 0.2994385205565753, -256.6005711643641, 2.4788497277113373, -1.818096009972258, 0.6295839187244521, -0.9808359058900871, -2.4008215429341146, 2.9543068622198416, 604.4688453667809, -3.076795121926415, -0.7240167101889271, -5.040349601616449, 7.385572220455232, -1.7877096480054988, 0.9176082572617692, 0.5449430840257643, -0.9459124558077922, -6.819645274453658], [0.26416390665031736, 0.027790480219769962, -0.07743315311849364, -0.2590183748287666, -0.23991089006893862, 0.25074279886915535, 1.0296246191075538, -0.17410955820408655, -6.075895865182559, 0.9560528166668728, 0.9960968135682274, -0.29449997999746397, -0.8670683771452102, -0.2457126461440853, -0.49735708921426874, 0.447008070544156, 0.11111547708802268, 0.25519941633573656, -3.055979586520105, 0.4063337823914374, -0.5774316263564867, 1.05973156393235, 0.2280628399596293, 1.2916036880307427, 0.3795938762300164, 597.4240681526945, 0.07859991867053578, 0.03774271582154589, 2.3333418012844938, 11.129675438740582, -1.609701461437277, -0.9231922720563126, 0.32676944339059777, -0.06438875713607414, -0.5701760219614714], [0.6465903872834449, 0.010907085870876635, 0.3877808486312913, -0.09476554633788857, 0.13876137857756007, 1.1954502199796893, 0.5330343035255031, 0.6377142650901807, -0.22543754838839905, -0.13828136915912423, 3.821441429901935, 0.021515185791628085, -0.15111781750986342, -0.40586152187407554, -0.28009089243003965, -0.17212393750477842, 0.45121045795709064, 0.1687112479478578, -2.334226228062493, -1.0353205167796866, -0.11144253427272666, 0.8327757940566167, -0.8936210736105916, -0.5225259742150753, 0.8724335571055994, 1014.9258186771042, -1.1685598510751798, 0.9631091991713364, -1.2987602051711695, -0.2794972272616432, -0.9536245074576778, 0.5471975975278295, 0.018171800957135942, -0.6318233759262013, 6.006876841742333], [0.3154929304669007, 0.7418406462652937, 0.039283215572371424, 0.19854194769652983, 0.320153216488757, 0.8361864496286137, -0.888988618217589, 0.014972054644675853, 0.7525163739320737, 0.5143739051253612, 0.4653953369819935, -0.5466927653751292, 0.7727969572739259, -0.3899014705473075, -0.5381031283097814, -1.054788044898699, -0.0730464917536047, -0.022209666329004195, 24.48002119229693, 0.9917585918572431, 0.2928307693848864, -0.49421702443185483, 0.8183662479048567, -0.2596034087846285, -0.6292315143265014, 634.3149438436668, -0.7036164927652347, -0.09681634695394382, -0.19171836698620057, 0.6387487616904024, 0.9123174394926281, 0.7246923796273208, -0.38776884137111806, 0.045467324916704396, -2.9235046531233255], [-0.7588795757778058, -0.04125077048123522, -0.6155695085374229, 0.3749161104222465, -0.8218670306258529, -0.02902418123151058, -4.8850256417119065, -0.37588247866953145, -0.40042274998434035, 0.11732461827757591, -1.65924025055392, -0.7933508963939758, 0.43975071838852786, 0.8625700175263018, 1.3534423786807248, 0.8567492000949966, -0.4763440722725707, 0.948599296495182, 0.1624884357259474, 0.5907962210906982, -0.5920917922335626, -0.7291278944012718, -0.32646488283876735, 0.5153262050758847, -1.002256829569894, 386.3762981270597, -0.4076388638741224, 0.5892852147139631, -0.03952910994345853, -0.8081740509838803, 0.14767765539090133, 0.06575360204418604, -0.8730541386321128, -0.1293760740132638, 0.0707923444794041], [0.13702342649401228, 0.896664413833959, 0.5613956860611553, 0.1272741319990886, -0.6379561520677791, 0.16501821567514968, -0.011361078250606726, 0.43216321047037753, 0.631720971853229, -0.6229502463398712, 1.0140664305104907, 0.6071133306681938, 0.9153026387314889, 0.6544361114143733, -1.0686503832270613, -0.1525394105047798, -0.5598750515015362, -0.7300189164671812, -2.209435822644232, -1.1219016750963504, 0.7003429295744158, -0.20655665799821063, -0.4381453567812603, 0.0891369661601365, -1.3110702219666328, 563.7261075457832, 0.650270413999014, -0.9756453216306453, 0.3309490156708891, -2.139703004539222, -0.8181909787893001, -0.06014424948077388, 0.22814937915981526, -0.9482197935319314, -0.490401233247542], [0.27190258251983207, 0.491121355303148, 0.19125664743348456, -0.17828029394622188, -0.2925857918140342, -0.007873637081306202, -4.4898007629604715, 1.6942980339173792, -4.968750903394752, 0.4961953654280788, -1.644363034561378, 0.7600739834113707, -0.04726356269087669, -0.2783685725886392, -1.4901483213358513, 3.0102360401776638, 3.679543588727941, -0.6868187807541494, 2.224847348827174, -2.1146763925359613, 3.6305150741156442, 2.6525859287343434, -0.334356177525199, -0.49812191090433894, -3.4600527210011967, -34.55406491237406, 2.5387004640550352, 0.780955641096526, 0.22763057190174996, -0.6582787541049689, 0.26778992254214723, -0.9371954491364636, -0.28794778187259285, 0.7642928002636235, 0.28679049314388816], [-0.40986351479661254, 0.0991565475857418, -0.5062021608333268, -0.3871991713267242, 0.4191031994311367, 0.3683373649133268, -0.007524995860315889, -0.9482689449305857, -0.09002403698981547, -0.28008841854488, -0.3390872141756717, -0.26657520348011843, 0.6952409395057272, 0.736553419261042, -0.27548771372923714, -0.7084148358292454, 0.4460374848692994, 0.271717275068697, 1.2757396538882158, 0.04468198735802618, 0.21355936227553038, 0.7161762347371531, 0.7162624028260791, 0.07487464021876142, 0.49096748233341364, -116.26299437502972, 0.5842569926545991, 0.5829446573282534, -0.15305504825971392, 0.8850396484144346, -0.05204461037621894, 0.024517693990128698, -0.24207970989952834, -0.707587682699262, -0.4594828803533131], [1.4649865737764203, 0.713119056447343, -0.25994301895174765, -0.3907297317864263, 0.19237027998847211, -1.225138993880294, -0.5209549482870663, 0.8587219058482873, 0.05915360915619998, -0.9842809331895329, -0.21413585633822596, 0.1803613655008982, -0.6421458445927956, -0.19954158835790625, -0.8146171712471324, 0.2111409314844389, -0.056557552318457424, 0.8280528734075415, -2.2217174874033248, -0.7800332558000084, -0.6909793429201013, 0.7150757348901702, -0.899858927032654, 0.5256034167318767, 0.3209567283390215, 591.6326949122097, -0.07482561040806912, 0.6991561647353552, 0.8226631383231776, -0.30740641999670554, 0.14593421727793476, 1.1262263066157285, 0.4402982265394277, 0.8492527760703328, -0.6307831030610579], [-0.08131564400016987, -0.21334583563814974, 0.9422304247957479, 0.37721836481373755, -0.09492517137829722, -0.7190183890063102, -0.16050332078152876, 0.41329699266084663, -1.4659171045390906, -0.38701369860676116, -0.9132158811472051, -0.19554100965936333, -0.05489507583857136, -0.5493544369583238, 0.5878026930851038, -0.9434596495220378, 0.7806793483608149, -0.8507723234115062, 0.07249583916451104, -0.16203673828962878, 1.0054366977926092, 0.22080548707959627, -0.9737862606267826, 0.8989549496457734, -0.9409355207717474, 152.22115294879234, 0.5705717280714938, 0.4642079047383209, 0.32841207899566643, 0.07182924271724778, -0.9420501311053122, 0.5574344128803296, 0.29984869322205204, 0.5333431542043223, -0.7089622952685948], [0.9242005985153426, -0.7359444350094452, 0.9108910258805764, 0.5866623677327052, 0.5910029161693895, 0.043480125795149115, -0.7878771177581033, 0.2585343354076893, 0.14589620079234705, -0.7757261596382189, 0.6909483324632181, -0.2731174289019921, -0.6845177034473807, 0.10525089983071272, -0.8269234447220869, -0.43445161792848624, -0.44386245561267407, 0.7979329770289334, 1.2442444025824535, 0.5221313244494838, -0.7614515336577401, 0.25751861284270083, -0.2671196828355521, -0.5955798602314075, -0.2075383100711227, 100.28959186051603, -0.6441522944647374, -0.4531845112687121, -0.8951544689556862, 1.2683456121850916, 0.5542806378740208, -0.7642791754570137, -0.804465836827327, -0.8489682980791589, 0.6283299444493505], [-0.42200773687267323, -0.456693603611229, 0.7668684823184923, -0.5887377782179031, -0.47323535479091444, -0.36945768854440786, 1.1340023708485418, -0.3704586099497107, -1.3479104613909185, -0.3873512636785036, -0.10827803412892481, 0.5915771688455866, 0.9935644744908327, -0.8233834401145589, -0.27000750229058573, 0.5126633122552596, -0.22775989107480446, 0.6568379263278731, -0.45190379542159465, 0.7143567948347143, 0.630704600965291, -0.829768223434066, 0.9243823267664569, -0.7639121440277487, -0.7684754342508687, 633.9451191243933, -0.0018156942085279563, 0.5118527627755318, -0.23300357473967928, -0.9572876797933678, -0.9166327435849383, -0.7615820596210087, 0.06519731813243819, -0.07037976807136656, 0.3089572258115394], [-0.8517189551991406, 0.6904599563223524, 0.24790601638958562, -0.6464800651531856, 0.4678197648607144, 0.7267687476821452, -0.24653891537599906, 0.41086464574543463, 0.14910925233206537, -0.22134210471196195, -0.7319683176866725, -0.622486974266843, 0.8479441586971825, 0.14858072548803428, -0.7213599789744606, -0.9978437065563139, 0.09601710653788488, -0.7739032168949375, 0.49806239530692303, -0.0037968554861363135, 0.22497550440395936, 0.2597324249819053, 0.47918879648784934, 0.618502492775777, 0.2898965809160268, 634.0188948841803, -0.5005741519433419, 0.6721927447675028, 0.1918461563205904, 0.9565029400545945, -0.4964289352840115, -0.3948976632215513, 0.5861761654343609, 0.8233295792082646, 0.3402009964498838], [-0.7378304509883847, -0.7709271039423171, 0.8271012013283587, -0.6903972806742165, 1.077644674392279, -0.6382469514510026, -0.058602562361470614, -0.8129520764704907, -0.8371525855545098, 0.5491372023654141, -1.0521255379918701, -0.6796607897351252, 0.5164745950893875, -0.49935487399753437, 0.9017572807863007, -0.9878600568872051, -0.6052091582670985, 0.9636404903114459, 0.6307690211162502, -0.21457775325529788, -0.8416757066129416, 0.17542702783626016, -0.94123062581928, 0.18986618042571526, 0.21162145626576054, 634.8430898807372, 0.12381230170606872, -0.6120339823500937, -0.2643309341590054, 1.2939195717285756, 0.25062433109211624, -0.7778918050569436, -0.026888602084070245, 0.7746044133043085, 0.905967476107492], [0.7911038493915622, 0.31281653182621905, 0.40439176684551253, -0.11402598745166392, 0.024237464305615443, 0.3336145249624914, 0.31866211118674437, -0.16138699202964477, 0.4079700322605503, 0.34902787547507064, 0.583714449607088, 0.36699847734297547, -0.6373986243186349, 0.6796998806262985, 0.7000437785392131, -0.7098884690606234, 0.0011043516474167896, 0.47303106507223314, 0.9396462470816478, 0.6384634998385155, -0.4506405387601567, -0.27439702868978644, -0.2912256024628767, 0.22566140161781328, -0.7758337769462386, 635.4494275824999, 0.7026419342491274, -0.9544206856330547, 0.5843271926789434, -0.797284919893815, -0.8936997603623942, 0.7649541483946469, -0.28278035207165514, -0.15254356305445643, 0.4806880259553782], [-0.29624776571256023, -0.8122397688792974, -0.6070889310157356, -0.8284592857642379, 0.8928747078003663, -0.23121160154667325, -0.95172913367373, 0.7370770643328148, 0.6774570416872754, -0.518220688233259, -0.9285614385450027, -0.610955738233837, 0.8570136494211242, -0.6381904340408191, 0.1549053727043282, 0.787084822870194, 0.12104993734767454, 0.7546753094441598, -1.0481773077788983, 0.8708726166439977, 0.7734736193794943, -0.16012832879075628, 0.4268829280937722, 0.741154900771193, -0.13105205747349785, 634.5159019736616, 0.7485182482516457, 0.5797643727593916, 0.15502494680852688, -1.1015437109289676, 0.11477580455419222, 0.8794317823455617, 0.6785067414999522, 0.8969670043131114, -0.7787280662973519], [-0.23260179509859152, 0.3455621364612223, 0.6185446472540068, 0.8673806974967726, 0.7254758111674636, 0.010469365090799057, 0.6719332057649778, -0.3721871456802458, -0.09720603524763353, 0.8531335428421941, 0.4435373569553528, 0.06157482745873586, 0.9704982130107213, -0.4338258959819853, 0.709956320722026, -0.29550296519904945, -0.9727036941316463, -0.5415169565599688, 2.599101787629694, -0.10239636340284342, 0.27306310327332023, 0.5644059696578472, 0.6497612548733973, 0.28885858937661907, 0.20967387796535147, 635.5066918520007, 0.7696955505228911, -0.9101317198463865, -0.2692544886186761, 0.5730164202412275, -0.9192768267639531, 0.8992492177864096, 0.5339645743996467, -0.7022887464453956, -0.754981874673756], [-0.6644014714769878, 0.13901694285259172, 0.5373954931010523, 0.3923646629940008, -0.0023001856777068357, 0.9193954694480897, 0.3566655185249774, -1.1481842470960257, -0.276612584512509, 0.5180871585049489, 0.538753273069594, -0.26095714943195075, -0.17036877533393918, -0.23101891284395767, -0.2434947815296327, -0.8394989050462563, -0.17568235221091388, 0.6363862184436382, 0.5346484427130155, 0.5009379986932101, 0.03264177562114375, -0.6534599140905465, -0.9339819559833116, 0.9410510807962287, 0.7618927579693626, 633.8212157695539, 0.7637076389718435, 0.2554176340714305, 0.4169435216623981, 0.5056324000189919, -0.594302920633696, 0.6722156976506389, -0.3821048557351372, 0.757322120724504, 0.7007661828874976], [-0.20977732582924466, -1.4930479652565787, 0.2912771115700869, -0.723374726447334, -0.8041884545520159, 0.005326026423010824, 0.7419814009105614, -7.899305077430129, -1.1101131038774037, -0.7552889192029005, -0.011236861057075283, 0.6572417621120052, 0.9190098559887194, 0.6099922825622303, -0.08817418125874313, -0.015602793199037075, 0.23782327035706333, 0.20861812902497737, 0.6935896430102333, -0.7237764203540014, 0.9547773972958427, 0.6904356792175799, -0.3588338292466836, -0.08658646127777216, 0.6197572596183989, 634.175443922956, -0.5196572417542106, -0.9421071737800805, -0.9592844729572099, 0.5592770380115089, -0.0906861323164217, 0.4139626378962381, -0.36731001839298844, -0.14491284836682286, 0.24826403646463802], [-0.4285838888646674, 0.3207627493713376, -0.7621588855831162, -0.3122265326193102, -0.3494235653870026, -0.10280611313727905, 1.5675060190560466, -0.6620342333715039, -0.5425766758926436, -0.30011769951021117, 0.1295181378105933, 0.6171352226592808, 0.1076958928608431, -0.13344242183630112, 0.8589123485240242, 1.0189490680529993, 0.9583376625077777, -0.7554389758348466, 1.7630195121117365, -0.08021988796541563, -0.2562312800050166, 0.922408003816512, -0.9828408513322754, -0.8560155995871674, -0.6877103173789437, 634.0487039457221, 0.3950623869095125, 0.855172963435856, 0.8750407850552818, 0.16580671570909783, -0.8365178430391135, -0.1325639299503816, 0.4859186337721077, -0.33557471410409906, -0.44834810315972323]], [[-0.5382975508474728, -0.886570462003233, -0.5894432693183568, 0.9378597171730417, -0.6401807769688546, 0.08083860633085017, -0.024766843919700934, -0.9595763362686119, 0.3029070093681885, -0.19986995243870662, -0.3036313836066423, 0.15392798496132587, -0.15651016028585205, -0.12840134287874594, -0.5931100283799795, 0.834404992501099, 1.0269167618945079, -0.6239795776270488, -0.6646195930046885, -0.19101695720898873], [1.2099878658910286, 0.5138155057533522, -0.6603478575509315, 0.5164484998184489, 0.9891509796161572, 0.15902449445120687, 0.28078443626987626, 0.6673515623743098, 0.30072305390365095, 0.6372150171452307, 0.4364993072075472, -0.7602466618888216, 0.2519994195970468, -0.7295314266461178, -0.8411220241964101, 0.7833740480028057, -0.9428344221920382, -0.7472371539092826, -0.22600919865644606, 0.9694287616877396]], [[-0.012385986885909455, -1.5121125889643678], [-15.74168504247273, 96.76457474571392], [-1.4691592043435577, 8.924399615949087], [16.389685445483302, 28.773960423565345], [60085431.02708419, -59193.05275932927], [-0.0779791512505653, -0.5776145944053448], [-0.009777242414108012, 0.35365155293857703], [1103549952.649044, 11647.293805607444], [-0.007618992961427715, -2372.569188578229], [0.039161783644447785, 8.111255260961716], [0.10199373084387998, -7542.434549487167], [-0.3711205118710497, 0.5404132072268326], [-1795676588.7574635, -1457.8325801552644], [0.35672999512542153, -7.391225805412991], [-0.29513733675793224, 1.178080220538451], [-22892.83146148683, 39.53001972738187], [-0.07864028681564983, 0.6443250109295143], [0.07385495458857624, -0.13971960878030618], [-1.942408084099322, 12.60918235280567], [-9508061.972634219, -10720.4194424449]], [[3.839168027990617, 1.2888762455287481, 2.1034892281529833, -3.3655045660495153, 0.11685081709874892, 1.2751358051164996, -1.466875010618959, -0.49709571291712096, 0.6924251924736188, -0.552432324838557, -0.33339978236434775, 2.0649310778478567, -1.9929897191770245, -2.1394204336042915, 2.8423967865935826, -2.607940950579537, 0.7053553235417056, -0.3993327175045016, 2.215458368234691, -2.962327806484728], [-2.4098952517044094, -4.69439602316286, 5.459891480523414, 0.42846345326474494, -1.4823890052229922, -2.294642015642623, 0.6900683099247703, -0.9169227207930323, 0.5169743747324399, 1.664311882203192, 0.8543618731165756, 0.2227663289928299, 0.3558762880482088, -0.510542288402147, 1.3565742119545516, -1.0592522970331326, -2.1452582618638405, 2.4971585148488713, 1.7220404581668913, 0.005536197980169809], [-2.2252723578301197, -4.917646660048385, 5.893685399860781, 2.5308677084036613, -1.6728551738886897, -1.2803103621327316, -0.1723229503172937, -1.2074386366189283, 1.5671353322898478, 1.9280467797059562, 0.030077094327438294, 1.3661124893819994, -1.5473222579220391, -2.5098058395056198, 2.688646130981146, -2.1826672391604203, -0.9329197546520951, 2.824091182517191, -2.147557343202134, 2.406738871277509], [-3.0961140109354988, -4.156931095611762, 6.908715050134175, 1.042947821198463, -1.7466643637614947, -1.8766742877016271, 0.6801570443181568, -1.4368260325487419, 2.2045711921182667, 0.5346363022300646, 0.6179216790778503, 0.4349102170697126, -0.06594320280454892, -0.31552214635105524, 0.5331883548071954, -1.1614522392786089, -2.834126445592098, 3.218403347128921, 1.1666625734925145, -0.39078717925395223], [-1.1902727617526356, 3.1389148508001044, -1.103366900150741, -3.966799346649027, 1.1349194265209026, 1.8784745603708741, 0.2886482627145066, 0.4722764131747445, -1.2340237186768739, 0.4668975852277787, -0.5587056387704606, 1.3494898535680566, -0.8644083567609467, 0.004730607471749665, 2.550658196966739, -0.9472694818675256, -0.8760364553505263, -1.002341041151684, 1.0802305108416987, -0.7081019311557111], [0.12465427978075597, 3.8360590740966387, -2.5598180609649854, -3.954802572179496, 0.23202594875649254, 3.5018527221764484, -0.4335138272393969, 0.05245281228911056, -0.8646771222952927, -1.2375802088639596, -0.1009720725360721, 2.7045337289753064, -0.9554430882529903, 0.21056554068850306, 0.9818929374980622, 0.4635391834102756, 0.2786156405027793, -0.708408811379956, 1.1109420922204953, -0.783790115053265], [-0.7575148686426053, -11.344906358290624, 10.948630296889737, -0.5849007677281209, -2.6810849364513665, -2.693878840494218, 6.478175092907636, -2.7842968466482025, 3.55812164162269, -3.3167294177151647, 3.61895616370292, 6.359175018535944, -8.75586474025103, -0.8068359247521654, 6.337458780823415, -9.290991785748918, -6.537649337386555, 4.348808557860608, -2.164714841134003, 7.716185161364598], [-80446.51438513285, 634.7055049189028, 1637.5316253245064, 615.5120078031334, 346.778938829406, 635.624275081028, 615.0673511323694, -88.5832742952351, 627.4981828503526, 199.320201688655, -113.19181858453007, 634.802246978109, 634.959398311702, 360.3284283907079, 634.2672270903771, 634.3263050259677, 634.3223560496775, -144.44680050404702, 634.8098901805163, 635.2686402992459], [-4.440888852064791, -0.8782554722787121, -1.8665582924434427, 2.724346524814903, -0.3447736489630015, 1.8924080859529935, -5.500805658775487, 1.7328581735322308, 0.045467911774221305, 3.341565823638471, -2.7382085152448847, 3.3027487356913787, -1.7107235478863845, -1.0239856146537625, 2.0587013581126583, 0.023707838424682014, 2.154842278003304, -1.847842443724232, -7.445847558619555, 8.962521707866955], [-0.4685174270598088, -0.014150983833004213, 0.8730819952534378, -1.773713072510426, -0.8702712627954519, 3.0505244945080543, -1.0111296232113909, 0.10186694187970054, 1.351756415873569, -2.629554255003288, 0.16708904783935133, 3.3792767698235964, -3.108920697288481, -0.07382751356758493, 3.123753328974284, -0.6986943833406803, 0.18330558705790762, -2.552821137972156, 2.939724081102271, -1.141906570543318], [4.251626450040586, 3.0546207752005627, -6.403923867413218, -1.6862844489561553, 3.0836673354615582, 2.374318260018906, -1.8045226158727863, -0.9931549053818645, 0.6802466913245054, -1.5008426841335263, -1.151224949163058, 3.3725668762193064, -2.1100716124433574, -0.9119733983871104, 1.820597263598561, 1.105364298325507, 2.1286551806838943, -3.759014009572721, -4.418238058356894, 4.427018522781929], [-3.0942740869820855, -3.338043222371194, 2.993929946785314, 1.6352013604274351, -4.585363061030837, 5.090943434984579, -0.9814685108143619, -0.2169854745617018, 0.6837421511771378, -1.0290684952848002, -1.3320612170479094, 5.94594596011563, -3.303141842774475, -0.46403763375545154, 2.2413688245123975, -3.449979387548582, 0.5953765385758041, -2.0936657246777233, 2.5319449638214544, 0.2713995708479676], [-1.8905047393998706, -0.45774092416300055, 1.7881298623142399, -0.3690365810932045, 1.3022052411758362, -1.1972919384705083, 0.9832298233018726, -1.336019364055379, 0.8701053302449746, 0.7963609928432586, -1.9573514567944306, -1.1424188713900012, 2.799611814439005, -2.7376714542524185, -0.36426403267676905, 1.0994821331926938, -1.6517292645762847, 1.4963492570108181, 0.503395714188833, -0.43213599909587397], [-4.655543641017966, 3.232372703479928, -1.3793117091424936, -1.0629973696437025, -3.1119882826384377, 3.3493790907031866, -1.1207492111734687, 1.504780970592119, -2.2879615751969236, 2.2045212680017277, 1.1084751402857835, 1.4339640561951417, -1.1360538260384399, 0.5788831943769254, -1.4075752361452787, 0.16526225802324596, -1.4570928415680142, 0.7954008783938923, -0.9145821927742077, 2.601966598958417], [-1.063509516451878, -2.3642907564087365, 1.021020755521076, -1.0705897352157725, 1.1941350887756115, 1.9852875535848074, -0.5509716938922137, -0.5364711767225894, 1.3465309070516203, -2.4730527591923392, 0.2987551744323769, 3.939494094769717, -2.8336204252122434, 0.02491140815745584, 2.1237962916440094, -1.612430623720227, 2.453057454714925, -2.153177092106094, 0.30500156826965885, 0.05335966177264453], [-0.39001786242162345, 1.4016408692986835, -1.1188893507941264, -4.698646719354181, 2.689266591970845, 1.2314676581171475, -0.7412481235218188, -0.6187706019772973, 2.2409433611027016, -1.0099591411771371, -0.5618614470046126, 1.3493408668586884, -0.08529326893481384, -0.5127270901697427, 0.36555137707327257, 1.0046180906552753, 0.11500497912314056, -0.588544334294751, 1.016714423357819, 0.19308752815641464], [3.1906812354919407, -5.38751496344453, 6.825191587639498, -0.7849546369523009, -2.8193846894201866, -1.5278858373803736, 2.2269716109398496, -1.538533157465321, 1.3052963483081719, -1.6755520687873455, 3.141840422868971, -0.7248726188652876, -1.2175527916331412, -0.2386673271216057, 1.4643639172893497, -1.7784446579727324, -3.7016797785117705, 2.3860092523884275, 1.612941595154215, -1.387690145095274], [-3.6714083003499605, 1.2227273855970162, 0.8609833284448818, -0.09548208508622853, -1.4037776186585973, 1.2635141772808853, 0.8379979284542549, -1.0561886109286027, -0.1921887669541155, 1.679677369835455, -1.4767741489945856, 0.7508000863702117, 1.4755380351889278, -2.188528448814487, 0.550365471745443, 0.9168690377379548, -0.8328817204864987, 1.0229224116529056, 1.305729140574114, -0.7079272312346128], [-4.168813006362279, 2.023764813445521, 0.4036959687829862, -1.303263207216199, 0.5914981840985137, 1.6726714245538, -2.3736788399747137, -0.6578336446951394, 0.7548989627217231, 1.957961306338402, -0.07503244723778933, -0.4224343954354394, 0.802934607396804, -0.4345946207396619, -0.853286242852867, 1.1132060750889456, -2.381594284357061, 1.4512367099837535, -1.7748156273325466, 2.8463330624730525], [-1.5734781819494252, -1.168601305771475, 1.847441590181224, -3.6735328278823545, 1.8984985531411533, 2.144451981403247, -1.457000035376376, -0.23519660254718638, 2.027033893510088, -1.302505908548138, 0.6615694097899456, 3.527161076710555, -1.0612815492242251, -1.2255419200791593, 2.770384162279045, -1.0656102510972434, 0.045142551193904666, -2.02741212028019, 1.6950447838834726, -2.08874848790822], [1.513999969480502, 1.4712902705996462, -1.3722903474418717, -5.026341422020722, 1.9067262704458239, 0.902921478407541, 0.6918227873872709, -0.7026745505555108, 2.0228831724790806, -1.0161560917467478, 0.8581169810747687, 0.851218536568908, -1.2551141645394808, -1.4183508133807587, 0.031910555133992054, 0.42494322725284367, -0.9043624795585969, 0.12937686315649538, 1.6171832944253612, 0.5544484463207887], [-3.0139407427411014, -7.149614147852741, 6.427821065219363, -1.9274080881206244, -1.9785502665783228, -2.063143563858078, 6.185386207683669, -2.6312461149982296, 3.9683899529283937, -5.054612986067071, 4.877852434440526, 0.6397746979526778, -1.9412742441417667, 1.4510909562774124, 2.7163633736873556, -3.152820494690466, -5.328860814062964, 3.219833489828833, 4.396053238749229, -1.5390700738536032], [1.3967897243614282, 1.0619108551041827, 1.55719433793233, 0.5046529870702866, -2.087449893394935, -1.2522862091942097, -0.5095489609032561, 0.8847287427538199, -1.937445012803425, 2.0877724331825616, -1.5162122510313851, -0.5906590054157832, 2.3849992709717704, -3.04698237334274, 0.5931519183867648, 1.260690402234298, -1.5792617157156694, 0.5440199905570683, 0.8878232728160629, -1.6856481525860008], [-3.8769139726209407, 2.5921568461898503, 0.1910263830330939, -0.755694807012942, 0.15841866506467867, 0.39141716317975606, -2.5176822574928512, -0.6186189045313811, 0.1335842619806397, 1.4351156831102212, 0.4930370686617817, 1.1203863292221659, 1.4641447449307283, -0.5642160747597564, -1.36559789526519, 0.06666463986681674, -2.138043728703457, 1.517106306900888, -1.0957481848321857, 2.5426936833802487], [1.203637170299176, -1.1958892788502495, 1.938480481325568, -3.8237481999850105, 0.7951690489575539, 0.9743583595256955, -0.563836868515562, -1.6880168647144744, 2.177376059037643, -1.9858478998770281, 1.0664825264696052, 3.0428410933206482, -2.3496117514310932, -0.6040686547627484, 3.288275222630962, -1.6534486077730097, 0.4186915837099081, -0.40766376653474645, 2.1130447614496988, -2.658664107865529], [-1.255679741780243, 0.26259443786242453, 0.45308295144297356, -1.613140878099798, -1.3619505701952226, 2.075462335064643, 1.168576346936594, -2.7648777831450952, 3.384294942547983, -1.074450998385743, 0.9821826593725538, 0.4753302959098184, 3.21839678360177, -2.348292387801874, -0.3603406345670316, 1.9677084584846978, -2.341243956982404, 0.47366499431098363, 0.38478019324883406, 1.3645126457837928], [-0.28617243233352996, -1.402321620717394, 2.4628582739689997, -5.432944373835918, 1.5322943591868594, -3.9414265955225023, 5.388036524068281, -2.349029002014618, 6.119212615239188, -5.287962518099062, 4.151452822138005, 3.6837453422598094, -9.22181812622259, 1.9689626067165258, 5.408775336929796, -5.005463655431287, -11.964863245226814, 2.790093135944207, 7.604975113119996, 0.6911132973100875], [-7355.335991224662, 608.4830438505676, 1738.6914058933976, -179.16174827650593, 254.7522108337457, 585.1692445506649, 508.49055493150183, -102.07910187258602, 156.55866979672328, 238.73814600653523, -139.60956609412068, 614.1806162021243, 482.3249127738591, 127.0925789936054, 524.4348448668443, 515.2856011698198, 562.6395036236311, -133.9860785639141, 537.3902569060137, 449.9227804869249], [-2.3614674745115627, 2.5551370599015275, -0.6777785250637574, -5.353109101405266, 3.2980799684408253, 1.3700789328386782, -4.139730152549538, 1.2721482071086772, 0.04552246360413757, 2.4621055152453497, -0.12144085150634178, 2.082021300639176, -1.7281533617414397, 0.7542300192038041, 0.3536557118817984, -0.7900297621981385, -2.6231150656499573, -0.5725314755873655, 0.6024650071477313, 2.2913423064259124], [1.1704923568571874, -4.096904259723429, 3.640091630795886, 1.2507458643807785, -1.4200231971741746, 0.7934473708699318, -0.24443774194343532, -2.0248081478696998, 1.5364777140087733, -1.6062733369870374, 0.30089202230088335, 1.3945763915524956, -0.3333484650541623, -1.5660127207629306, 1.5148217203531595, -1.047069002315549, 0.6364504635660055, -1.2198837464240555, 1.8256119681404779, -0.24360237753332215], [1.8667562825996837, -4.269758757567021, 4.885623894646467, 1.3903054150052934, -1.4507461606501757, 1.7390849200677974, 0.4235489973254142, -0.5007033969295539, 1.3678537673320899, -3.053641520744358, 0.765256343118143, -2.4646175564381285, 1.80526168534374, 2.087855778028123, -3.4076904687942102, 0.4580884802630869, 0.4188520808659266, -2.655615665810885, 2.3528965338596373, -1.3183490344911137], [-2.3347359343299248, -4.351079043711565, 4.432443323617246, 0.6650611473287703, -1.2380856855827915, 0.23115833619854598, -0.17848302805289845, -0.6707557201841874, 2.1014265791929545, 0.0048449196970379305, 1.3235947708860218, -0.8356528576853189, 0.9182658468490729, 1.710366400214967, -2.8383169563050483, -0.273846275053101, -2.380015958252159, 1.27290414541263, 3.2503346677242106, -0.7245602659894133], [-1.9546920135044088, 1.3719476564442878, 2.0005808534804546, -3.4248894588070944, 0.5725218655973758, -0.5088300740964041, 0.35090606771607713, 1.2720812507341888, -1.1663863892324642, 1.4022794482571384, 0.4017875042502206, -2.0961570579886812, 0.10900212214117197, 2.0030884805283096, -0.4553233876404186, -0.9015433547314826, -1.3329561148303117, 2.4287113597748697, 4.629158031956998, -4.614238809386397], [-0.5740130073887856, -4.586599023235763, 4.176882686592714, 0.43736767015924155, -1.6748784614808574, -0.7072736972676826, -0.8105415392093035, -0.13652267117601657, 2.162169397596445, 0.7216146743287675, 1.5327432179106457, -1.136308390512809, 2.0048643025649953, 0.303448081886465, -2.0712583576082064, 0.8399663421538986, -3.1587081316935053, 2.550545581709829, 2.835742424972235, -2.973658980944559], [0.8852325583346118, -1.7979274433225911, -2.6391906561715737, 2.842444685805145, -0.40894454325921664, 1.9298019061103888, 0.04373047458023486, -1.184064783476158, 0.4142295791081671, -2.5909462554837295, 0.3646597890890254, -2.6893199547019697, 4.806789972409452, 1.7158476730332932, -4.32372573309757, 4.534756840890022, 1.4286184258496741, -3.358106166049021, -0.7657754460593187, 1.4199372885953496]]]}