{"total_layers": 4, "nodes_per_layer": [35, 20, 3, 20, 35], "learning_rate": 0.1, "activation_functions": [["LINEAL", null], ["RELU", null], ["SIGMOIDAL", 0.8]], "weights": [[[-2.6729536330044605, 3.004681646282638, -0.5574214515979522, -0.5647437551777091, -0.11190508249487817, -0.8278266608568698, -0.17537500636338457, 0.6553912964682468, -1.105986380562889, -0.4291606799984716, 0.8026667603348353, -0.2523625686390578, -0.0020738942546107858, -0.44266068070564896, 0.30740597883911325, -0.8723794555490062, 1.2862379451798207, 0.12782423180812208, -0.3537399118553452, -0.6103690109565264, 0.6721553045492371, 0.4338553156416365, -0.5769863793502568, -1.7578935897592438, -0.8180626073585927, 0.43403770768457905, 1.0480841527047569, -0.565351112142952, 1.18905398961849, -0.266283544965166, 0.4037606053417505, 0.8262356462067824, -1.0266337905086422, 0.9407191928294788, -0.5304090852343061], [0.6809459982487948, 0.6302127862900451, -0.3946034249471495, -0.9532562880961072, -0.8456863763215197, 0.8636017869633452, -0.9486722749501112, -0.4402726001735007, -0.42316599144700867, -0.543281930417045, -0.7961359476161882, -0.5332650423848024, 0.25523510463189986, 2.603588254373987, 0.4012936614829685, 0.4676710061084444, 0.02460828432291978, 0.3707779613253276, 0.22218047891132386, -0.45437282234390397, -0.45985042391769965, -1.0391253641159237, -0.9505375796418656, -0.6822127920154074, -0.07908385858235067, 0.4631966233863084, -0.47125953176906094, 0.26294036703025153, -0.27798022809035944, -0.875582378767191, -0.32526123397275225, -0.5802255814015376, 0.6264164027291088, -0.843487510516383, 0.7030824596515091], [-0.8497359000514267, 1.5375355590571207, 1.196838835203674, 0.760826278156109, -1.3682764183585405, -0.5046028994447557, -0.12552209861412408, 0.4107487913049601, 1.0909096848241304, 1.0424684518980212, -0.6052319311231678, 1.2842027714154536, -0.6330201371847326, -0.3597563062082601, -1.0621012049790084, -0.7959291751230781, -0.679840348426827, -1.1172825459393654, -0.1195247241779284, 0.026728319512733134, 0.06927943868558874, -6.356533490545712, 1.356860054387708, 0.2281244686422062, 0.38059865877794724, -1.056496024965073, 2.411363412035325, 0.47373430509568665, 0.18016208056770244, 0.0681779803672298, 0.7961977384776574, -0.016496413838682597, 0.41026184977737257, -0.21755071642957927, 0.7747950626042202], [0.39699148885669666, -0.17476466035220914, -0.054466115081856684, 0.26388704505320704, 0.437139869968845, 0.6769697667682085, 3.310391223199816, 0.3029499907829694, -1.3961007255012727, -0.3001191304175567, -0.27578961147663167, -1.7987647273427683, 0.28750059684990265, -0.6220225731327121, 0.00926543646365082, -0.6081914784798026, -0.3808864419546415, -0.8180161645258673, 0.15359970760106462, -1.821756663601285, 0.6738532814521963, 0.9641051157859901, 0.5019592880146377, -0.3071574051412106, 0.3977857739750621, 0.6561456506666637, 0.2968285277041421, -0.8994183460846426, 0.8423076140443424, -0.3834554790655355, -0.6678445917702519, -0.2858588859499987, 0.24133516793257254, -0.8548735586736539, -0.5007756477731928], [0.0530875418657699, -0.48929204849959934, 0.21854348705681642, -0.7617244619021234, -0.8323237916381171, -0.6146712284741983, 0.9944583056499957, 2.014860365190249, -0.34832449504609375, 0.772222980728928, -0.03988505404579056, -0.7075053254806937, -0.5845400618180696, -0.5356631541792817, -0.24898656583864248, -0.09387971878700498, 0.3342074836183524, 0.4414951008023387, 0.7626673830569585, 0.5680784242967356, -0.069152293972897, 0.89701181612346, -0.49161467978532175, -1.0020917615496627, 0.24594908226121484, 0.3008146158177796, -0.5290185828544212, 0.719099491246149, 0.37328686804630146, 0.8306339988753627, -0.21735251828769225, -0.38094480191428837, 0.6167735465851095, -0.4136614668792949, 0.8396412568131589], [0.6631989600249669, -0.4293439471515522, -0.0012921118657094827, -0.8352279279855698, 0.6914669424452957, -0.36455343986498745, -0.4297801276778214, 0.7022202347193367, 2.434845092161645, 0.31495540864115706, -0.11831867929953238, 0.14845422112581622, 0.0529977399878381, -0.8874980337596602, 0.10177733509420636, -0.6276392463770761, -0.10171435842330875, -0.22874808730190863, -0.6382217977772585, 0.4193177361472208, -0.37782507923019654, 0.4111935323241374, -0.12837833977446375, -0.22999032437644676, -0.8534540115441838, 0.5024654515139927, 0.1912937164612375, -0.031919774945353814, 0.9963018502587953, 0.36519518501205134, 0.9217362218853866, -0.36828686326663307, 0.2282491962330824, -0.004897361017645709, -1.107705964035494], [-1.082118832625641, -0.03893623732834908, -0.8923271502538892, 0.05826080104616234, 0.8355238931336173, 0.4234215318073421, -0.908077512150513, 3.2954764522830207, -0.21925517161289973, 0.23006615727536106, 0.7576497914113871, -0.3698688916579024, 0.5183181617601555, 0.9854562025662781, -0.3019867941066944, 0.40185365152438945, -0.7897247327185645, -0.855237551530204, -0.43089606848455075, -0.6853403485401721, -0.22109611775998952, 0.16470113361256616, -0.7113003035347103, 0.4984177058564736, -0.07943530391668925, -0.4676032599167893, 0.5802281411081349, -1.94941366262749, -0.6830961500697902, -0.642883820044091, -0.6315085056315365, -0.848863648453312, -0.19328825215622186, 0.7924816181472744, 0.27253749137474587], [-0.22978114965869445, 0.4642194845388805, -0.6316734190005746, 0.6756644171993862, -0.6869901848334105, -0.13161740209324474, 0.9042219028235645, -1.0102191441592892, -2.9669384235463463, 0.6095375112985049, 0.16738250851247888, 0.6553162818734828, 1.1448632348972254, 0.17945287338341903, -0.4283213557030323, -0.47234292893314894, 0.7810767148488941, 0.801584339129667, -0.7113615102330219, -1.9380678077052607, 0.7384904585473513, 1.0018063954741345, -0.7469277635294529, -0.48660833853827035, -0.2848951123122822, -0.9986420004810638, 13.015518469352754, -0.118353339288697, -1.733334159873604, 0.7371005808177614, -0.010876495467587032, 0.3550932875812088, 0.6312533413429613, 0.597674196030571, -0.27481557367156567], [-0.1181924203972528, -0.5673879064186338, 0.566465738453796, 0.3506784992677003, -0.08571103129539659, 0.49821209331534294, 1.5617551202027362, -0.06487083169332857, 0.5682002759827102, -0.55592448880687, -0.2297076343087097, -0.3537680223139461, -0.8356721430653906, -0.8591874764412237, 0.90617725279369, -0.16201322219775013, 0.04795538768636043, 0.06814494372577949, 0.6091735491613995, -0.6281897548123331, -0.5404541309010149, 0.40311308537818286, 0.7957247927613463, 0.799174494520235, -0.5529972021549794, 0.18069895977678693, 0.6538049114028269, -0.6002905866590854, 0.6003885775616973, 0.38078551261236643, -0.7170848570631586, -0.8357369202255212, -0.680517015387688, 0.17074528014191134, 0.2580542962703058], [-0.05176727847429967, -0.4838480202839892, 0.2594431952842151, -0.6390038298216448, 0.9338309707519148, 0.6521928144690972, 0.24718099264540044, 1.1286047668570667, -0.12744801366746952, 0.7758980903356981, 0.1382158499133247, -0.05176439424690043, 0.1905535086683254, -0.27489341746317725, 0.44855975230517764, 0.7507866410903266, -0.4583280551616972, -0.0732922677341862, -0.018415510523123357, -0.25387177053683857, -0.0036738544703718242, 1.3639095149529654, 0.5712615562617016, 1.105258031807113, -0.7289179031161437, -0.16478034963752664, 0.05785501442703144, -0.06251197742198034, -0.2528840485962018, -0.10672216736467743, -1.0077836020699802, 0.06685010271122223, -0.8612396892028592, 0.9141881031526433, -0.2764720900532629], [0.799710543152376, -0.5542800587105429, -0.6479769745761229, -0.9690612602576265, -0.5644218107146218, -0.5926150772502631, -0.974623936425337, -0.3595906682792714, -0.07812268886075414, -0.8559890977364015, -0.20321698274915972, 0.6247761668522013, 0.02734585195367894, -0.8961553292678317, 0.4936280932123899, -0.4035520626409699, 0.8210979159356915, -0.06566760357956636, -0.36313951866378713, 0.14673774260536482, -0.5638153620537388, 0.2103528570296418, 1.1002399818256552, -0.6540103671270646, 1.0009967289805808, 0.14431256436182602, -0.5910612265421229, 0.17719008859357305, 0.19366747199858536, 0.8920875359372423, 0.2743842245915148, -0.7564420432985677, 0.8803416367100493, 0.8571674652168993, 0.6265917021566682], [-0.40417667043515915, 0.3935864236166087, -0.3694968673659181, 0.3200174413057883, -0.39196717833829503, -0.30342179493282445, 0.7051816262694784, -0.6899021449138807, 1.2557913519770283, 0.5870672127956926, -0.020834386468736053, 0.36868877042022163, 0.7961602792113582, 0.3463820291361332, -0.5682288918433913, -0.9001446041782161, 0.3001574589131157, 0.288333059992937, 0.385198702952386, 0.8182689299826834, 0.7382536072443375, 1.204210158843585, -0.10199132727258965, -0.8309062425227792, -0.3514009502594985, -0.41245125013767614, -0.48430264689490304, 0.5618463095055386, -0.20782547054641323, 0.6884289853194205, 0.1516426224531175, 0.4429286221346342, 0.3646070749704361, -0.7843680175363863, 0.15688883445410753], [-0.3504420981602506, 0.5621307747196408, -0.37398707505706813, -0.7219466235993547, 0.784191038247329, -0.12160678696017439, 0.1633861410050955, -0.2069274415752366, 0.12028561031693674, -0.632810234434682, -0.1396457811524719, -0.1430246296090486, 0.6256690686555622, -0.5571796206288707, -0.7688606195891002, -0.271223876947886, -0.7179008343702289, -0.9800931907000565, -0.29000844125440045, -1.0200192279478544, -0.3655209936945987, 0.1728978980345236, -0.2151339186251988, 0.22088711535658298, 0.33205650123599106, -0.2627891047800401, -0.9011455389635606, -1.1797608920599625, 0.5904852621766896, -0.9586399379085087, -1.23723921761213, -0.767116182666483, 0.2579053503399163, 0.18635236688544773, 0.44206298192011734], [1.857781879122288, 2.6505992062059915, 0.5983217416340323, -0.19293613799213044, -1.839212393762271, 0.31267423886449025, 4.433586785467356, -1.3686093895061135, 1.0379957895906953, -0.9294992704557299, 0.15331550475801736, 1.6361718660653604, 1.1847882834112151, -0.6107127690963527, 0.2658432372390048, -0.6543758073108662, 0.11665740781701989, 0.8105421339891596, 0.576801627824448, -0.7606830973416332, 0.6216853672180022, 2.4845258935573336, 1.239107671252057, -0.057694968760485195, 0.9013957961868201, -0.09879639768069844, -0.6110700344817244, -0.5165780978226077, 0.8600637152236875, -0.6094246450269597, -0.3220694726560312, 0.2891988519307404, 0.043143953824666334, 0.09460990789279766, 0.4139309029549564], [0.31136801262449404, -0.9209855072295788, 0.825788077624147, 0.01541387214626178, 0.9365984301708122, -0.8467688420053465, -0.47321645737579965, -0.22771823396860388, 1.1935273219337852, 0.12273854766779135, 0.39978183540883755, 0.876629653765723, 0.003024918592693568, 0.7018488976683785, -0.7483459204041348, -0.6731259152847696, 0.5491626467504621, 0.9215439902211718, 0.4402785191568333, -0.8008204174861401, 0.021347964176514, -0.48728677093711986, 0.2780142082366382, 0.009364287652608098, -0.4531105506577581, -0.44260791923177617, -0.11250116412743959, -0.038770364014320345, 0.11572159523864796, 0.45478653649599826, -0.1874326973376534, 0.7897089808293452, -0.18743246713371517, -0.12101189589731927, 0.5696782985965686], [-0.41466340634614984, 0.6820390639780677, 0.057997050837247884, -0.45747013251869706, -0.9378594217627892, -0.8760003515681726, -0.231310778636555, -0.7269931367144681, -0.4027920909823808, 0.7604243828050753, 0.8317260581694874, 0.10102811368059447, -0.5876303685601308, 0.23965819696126317, 0.25817895352164455, 0.9196099589433924, 0.9630087659196856, -0.03980084533406046, -0.7212458043733877, 0.289629823612984, -0.5270640384042458, -0.40364884041319876, 0.8606725795359357, -0.6026142549511554, 0.7990101397782442, 0.039348971748123615, 1.0601758155523444, -0.8839370587530074, -1.078525482787317, 0.5736175883786856, 0.28517499915194705, -0.12130733315674168, -0.8246567074887949, 0.05062613551890742, -0.5037755928635452], [0.8575830684523268, 0.1746368033279476, -0.499459063502451, 0.05103015152605106, -0.4024003456841106, -0.33839367703254836, 0.04624780383673996, 0.23606417348539188, -0.3976728831225567, -0.9894354110328459, -0.2181685197205647, -0.7242004054103148, -0.6666955841549126, -0.19406966163965914, -0.1205783454855177, -0.2177005654851109, 0.49915091241848275, -0.4293147570478849, -0.37554484160289164, -0.5276710449485805, 0.11062781196280409, 1.3355125693048977, 0.3190962761863561, -0.9703726190018988, 0.12913236974271114, -0.9342272973294692, -0.8103032986306431, 0.9736538897991746, -0.6458511360839809, -0.4380273891152988, -0.8438453869479025, 0.2384029053850171, 0.8063754084427196, 0.7530619952297039, 0.4339071580221173], [0.6793257710582247, 0.2377865255532291, -0.4887719128727582, 0.6457451533712582, -0.4145897864920021, 0.41012901448227074, -0.7316140104048388, -2.2006194909188057, -2.2344762524076405, -0.6039299161537011, -0.2562722313577993, -0.24853109785996838, -0.5415624032919042, 0.2465751159865127, 0.34850919150947496, -0.9954479316101407, 0.3717418409733924, -0.5185308188816752, 0.10078948789369423, 0.24286867943934617, -0.531780715335587, -0.6770260561854742, 1.103762591369386, -0.29918629429858873, 0.41546781559266077, -0.18337639439792708, 0.61214258201941, -75.78938742266519, 0.6543551507157921, -0.216192121325043, 0.2372286895432136, -0.5212661605277316, 0.15745482075905967, -0.27022765928587833, 0.08225826018769977], [0.0004216454925241, 0.5110643266777438, -0.3483894679795009, -0.5176097540449803, -0.9582524682998321, 0.7026461993787424, -0.0366184927628661, -0.25867986327426745, 0.17304988387428538, -0.5893740924274524, 0.2227158503199614, -0.23325877999182718, 0.15989910939656177, 0.2568615618389137, -0.2085585869138223, -0.05436439496833902, 0.8984284288950706, 0.14329598517493403, 0.6597935395983568, 0.6624307153138432, 0.19781338038677998, -0.7793718879373224, 0.6408487980058137, 0.753601810039019, 1.0006636871459078, -0.7243960418243689, -0.03930969000684465, -0.004898593298746921, -1.2455998978151852, -0.11835623053941348, -0.884073621703618, 0.9258363757615438, -0.6461610429897919, -0.44561224484990986, 0.6705024042533485], [0.00477374033343038, 0.02236291477983058, 0.6128815336342667, 0.475888042715165, 0.45876020055691175, -0.4392835395699857, 0.7259681217494404, -0.4575185302037918, 1.0289226807533969, -0.45145824821423797, 0.4410927256186396, -0.4867965284602703, 0.08835389396782427, -0.8864501944280686, 0.663644136463107, 0.7231710904487819, -0.7541011712748417, 0.750363505310358, 0.5361018862994111, 0.6422594924821426, 0.2490590601163353, -0.4753598095990916, 0.5877671382554219, 0.4437581207174346, 0.21989344101764827, -0.3405042670543738, 0.7184433718472559, 0.4437410958694893, 0.7958562030504349, 0.7139628180478149, 0.9007010591960689, -0.49462823038489107, 0.42693554130084505, -0.8001176632461159, -0.7550424552331176]], [[-0.5602992051683302, -0.351269682503611, 0.7376114343176476, 0.22869981051543473, -0.2396395597220616, -0.03436111090486529, -0.049806171347005594, 0.44015663408479755, -0.4995575108904354, -0.7676712132384937, -0.9015699404600698, 0.9213441700965253, 0.3160803956250487, 0.09109938226641875, -0.3804598073285817, 0.9780618284854214, 0.20196985743803583, -0.0007555793671571113, -0.30699560106795115, -0.15546856293099698], [-0.730531388702978, -0.25575642081136596, -0.9711282372318331, 0.5660547042812697, -0.8943449448940178, -0.538681873523588, 0.5669757521396724, 0.14108361954748444, 0.5786778528527409, -0.661508392231494, 0.8819541075908037, 0.4003809605883261, 0.21206394401214743, 0.09538877878601615, -0.9443381421556468, 0.7821662415531245, -0.4119415329258759, 0.9032593332188914, -0.4050847824147723, 0.9964524366741759], [-0.16657051401375977, 3.0481356633075873, 0.9068993274258468, 2.7701217913002307, 2.8001386616787936, 1.8686223353686373, 2.1105596239800226, 1.201330384808154, 0.023164925208059562, 0.2815033995298205, 0.0699856135598357, 0.16607789395532005, 0.6318480226314623, -0.2905919021168599, 0.48510876065000585, -0.022942273591251835, -0.19169608750830505, 0.50815618278803, -0.9882323864587109, -0.4375868387771487]], [[-0.6901580342860656, -11711.471685673632, 859.1074991353196], [-0.11406539147565611, 0.06671519320588618, -0.02816210290746149], [-269.73714616113176, -0.2802916736795341, 84.5311210542254], [-2.320440366643568, -6.699116789703643, 6.0794183828778445], [-11.594419627677635, 0.2941117057540721, 576.4058080359923], [4886.961341893934, -0.09103157468949369, 1351.9437985395118], [-58.304751018381836, -12.867611225506876, 29.196473150829416], [-1.9854978471509015, 0.99424474010887, -0.2276754037286569], [-3580.292159355142, -4.03953325977189, 1145.1234167882455], [5.383584505663064, -12.160320846788592, 1327.7251596681747], [-10.632978084167497, -3.0744343144519717, 2.7353961636940207], [0.10036684244862834, -0.08468429306172993, -0.2051836602960557], [-0.6435916572338665, 4.208810340239141, -2.559847265513805], [16.51858077111609, -0.6111833924003817, -4.8042975809293065], [6.421510376306807, -42.84697913086641, 1343.1269468599514], [-0.0796231417484078, -0.08906823372680901, 0.12770049340295483], [-6.818002516511518, -0.17155951333850333, 1351.5934598525535], [0.26779466292456033, 0.08223896378946577, -0.038932898003026385], [-0.3716256853803157, -7.125307612291984, 5.894820130341431], [-424.3589103841305, -0.7456019063069458, 135.64905129714276]], [[8.408146433855965, -3.9368256045563537, 13.167597363836267, -0.20455656748338055, -1.0774741430491326, 8.467643807593177, -20.620939989351818, 3.015483927119028, -3.235318836929052, -7.008364006817771, 6.242524572075889, 5.494183559399178, -0.3374201184979074, -4.050870940309915, -2.7308122278625557, 6.371456846524735, 7.842991059576564, -5.6407631114715455, -7.929833673349321, -0.22503714067716488], [-5.085019267074795, 2.8448538709618965, 1.6877760475942014, 2.108023671430029, -0.8252796791247348, 4.640520374641907, -12.24752569894393, -2.634062344412939, 4.33268055382836, -0.8404768524646926, 3.4785175479439188, 3.796921159176143, -10.329780869055993, 9.334893735371558, -7.87803517705782, 4.413163644105675, 9.546294125323561, -2.256357276332771, -11.093049852467768, 7.00791294661935], [-6.776247880226509, 1.2511354057051831, 1.7999660823928392, 3.371396867268095, -1.2898876005033952, 4.701209982587106, -12.754681745381225, -2.396150348456634, 6.088106411866386, -0.01848141252766288, 3.85513785386598, 5.45371324197708, -10.572579292050246, 9.345835448711528, -8.255383310959937, 6.238514458058165, 10.136738933032408, -3.2666796104758684, -12.335999328357879, 6.292716187637223], [-4.736055555330176, 2.8600641649857326, 2.181688152393748, 2.5042052149127483, -1.285379838514729, 4.360779025160667, -12.227373724369297, -2.832887020739725, 4.220049328053287, 0.11268184558514971, 3.5449203023789777, 4.5785156580943225, -10.316853946817718, 9.057094843388409, -8.743921354027911, 5.532023057686612, 9.515140073447753, -2.7189418759679, -11.947689190331696, 6.343690994597854], [9.702335774921147, -0.8663583654464568, 0.5861765974929768, 2.72105792790924, -0.6243789430284156, 6.562661679885136, -7.655213415993686, 5.24327020892998, -5.009060402232217, -8.773753411661506, 9.908282640549976, -1.670925600123536, -1.076362232009203, -14.24517688983614, 8.536173174704347, 7.811145899631499, 2.511745780814481, -7.785797889279557, 3.088217188727166, -8.968631844382308], [-20.93685199434827, 8.995391493753123, 19.61967649904973, -2.026179666950184, -7.390584348631043, 2.8781360011525248, 5.540168207041621, 0.27007927450126606, -8.017476028178338, -1.4112628832929235, 10.040391663974185, 0.4982590389145693, -3.5030360777324505, -3.49431368876002, -2.1979766130063316, 12.065717322364568, 8.912057412678093, -0.885310966955811, -8.147476954811152, -10.809102134001597], [-34745.997063878116, -59.940701196983575, 1354.6418338843882, -1396828812.03219, 1277.3865284454632, 37.074260669989656, 1354.0592060002846, -197823831.28529784, 1354.4735225626373, 127.40201324356245, 1354.1461063293168, 418.49994435452106, 563.0084499322197, -418.7284049034796, 250.90435962885994, 784.7173882230028, 771.055398903812, -402.60857154888333, -1881.5677770991826, 1354.7274022858726], [279.3486802756168, -73.91300406752865, -10607816.74942596, -1679.1101019858988, -39237.06067688028, -47.219060807940004, 7432233.019557098, -841.0714907007875, 1352.7859943646326, 17.572317584522214, 12326.542714582294, -8.443003428236828, -0.46862789480862005, 5.400738592191984, 3.631512950656238, 14.608729098660838, -6094.630449241828, -16.043934711770664, 138.77473054791582, -35577267.09341226], [-3.3361783485618495, -2.5316134032338513, -12.044190190712639, 14.165608071219452, 2.9121847660624725, -13.067429680979611, 12.055161433091564, -0.3744823240659043, 2.5416734462226125, -1.3193958803524042, 1.140272036710924, -9.328318965712239, 3.8981183874441876, 4.470401398715667, -0.2267728032014111, -8.3507672686352, -1.7194243180259292, 8.060323690550886, 1.3849041515096912, 0.8032912638591193], [-20.24856210387509, -6.460142672417349, -16.619360954362378, 30.03911985816467, 5.992108462393985, 10.343869408165238, -0.8182851213239507, -6.198411912004715, 1.7571138607865115, 2.0390667984575095, 2.4738798105732918, 8.718914653947554, -1.511001835182841, -8.852994536031156, -4.255852586357301, 8.264765360416343, -3.8946932465478357, 1.644835651863368, -19.997102461983204, 15.60199157969852], [-23.849915136066908, 13.213493685536518, -5.247088689040495, 3.7557377743088143, -1.1294155954777487, -4.889633518814821, 8.556983568079016, -3.1069573058635656, 3.559218546302489, 3.0922960520053375, -3.0890400253499393, -9.788366794127628, 1.1015449984601187, 6.121421382874722, -0.7376369214892561, 2.8269684136652304, -3.2444072641804675, 1.370653682598357, -14.701375521819607, 26.202303351116107], [25.14728817600312, -6.990502800400389, 10.336436311068061, 1.1293618572619204, 2.0502450854475613, 6.331128866233129, 3.8868933790717946, -2.8037069373119947, 0.34349353427846935, -9.929252688511422, 7.764056090126288, 14.163100411579906, -5.240477340352703, -15.475696840052047, 4.943371199808316, -9.203146299545129, 5.525565242389213, 6.831932847566821, -14.172058667246828, -26.691641710592314], [-151.76868939289224, -7.084370086315123, -120.66850620997674, -934.2059761428555, 15.22532371938918, 14.390980080484114, -9199691.434267238, -3.6350655568385566, -242804.8714850552, 3.4528733085506906, 46945.3411190907, 9.908161305617767, -4.110355707856313, -22.092668406779158, -32.09073483550617, 43.80587528598015, -20.296615965644193, -16.520536677736334, 188.8581588239291, 314.8340765855038], [-5.7828363252397965, -22.267214016391392, 23.68451756374594, -0.014707994840940387, -0.018944893593349305, -0.48380066328743787, 2.1977138121788977, -0.9577996516868107, 1.5269018213991017, -0.30848166147155626, 0.8398538991945389, 0.03160765668397927, -0.748884496159047, 0.3881318155908269, 0.4593190577012887, 0.5467121766795878, -0.09185587053612158, -1.0772456593750617, 0.3320239856210416, 0.8785495099381525], [-178690.71147364154, -6.705418258754211, -16.051973069507063, 178645.35218128117, 4.393626826151762, -3.1395991029120043, 41.64720792900075, 0.059178014221855736, 8.779613358498908, 5.1179693993376505, 6.6463995872852735, -4.734588579032756, 3.536190703225602, 7.21990727712691, -6.688359807532171, -8.542400069136484, -2.487075290738716, 8.963558652667409, -2.6887523320797775, 8.025358633046526], [-20.931298835480774, 10.653449623578483, -6.394895717953906, 8.965403511063483, -0.945154516461424, -5.486930889574929, 7.337043706213793, -1.762021721256094, 2.334722495412419, 3.6254606598061434, -3.5667299235378995, -9.334739113222566, 1.5337704464713275, 5.757582228280457, -0.40383549939376784, 1.4447545548927194, -3.7093437546607717, 1.9880832720228874, -23.302992301486157, 31.3164481528338], [-28.59183990563577, -2.419170888246063, 1.8343305949525754, -14.229335400168642, 4.497704319533132, -0.4421429952807522, -1.4047757903510039, -1.925876092439919, 3.815522048461975, -6.363590414147241, 6.25485052657623, 10.051483731323941, -2.697119079657668, 4.70994174467508, -3.1015557975488095, -5.783752616830946, 1.9180121081319197, -1.1260968817419021, 28.42154033706414, 4.61856144146483], [-14.500276286436575, 14.921654549545929, -7.126368715891451, 4.447018725161134, -1.8056185820097579, 2.428528982483182, -1.5017688316838862, -1.5828338921586032, -0.04051477717865351, -5.837970622065129, 14.96561576418602, -1.5088753514304432, -6.000574230752272, 1.8247248500411584, -1.5223626123860001, 18.28441345750601, -1.3384927051455866, -8.294154488047694, -5.690584749349408, -0.11332988821240823], [-22.68643701539654, -0.7743437452079646, -8.838991795090875, -4.397595478024623, 5.1979762696232035, -2.8533427217875986, -8.325761578402874, -0.11365245622073526, -1.0321687802637984, -5.370840852473959, 6.612584682692999, 5.133807504934418, -0.7709810336646946, 5.366964294194305, 1.5545827900623639, 8.235975036865723, -7.337022964842225, -8.438990874218934, 18.36170785848901, 18.486467269430896], [-25541290.635025732, -4.521123646698014, -17.529668526089345, 440737.84486167785, 5.129784678708757, -1.351581202734635, -2325113769.358342, -0.46300462626503214, 1235.2918646860535, 3757.0627053486073, -163.5642302586421, -11.041066236138136, 5.060125773931532, -5.214347864906774, -82.05818854741489, -12.556110443320646, 1.3570135455770782, 8.643459591784191, -3297.471772191637, 4.289248261305121], [-132.98595339537505, 14.19502474322547, -8.577131395047719, -510.7128628181863, 3.231321525277585, -4.230470025936154, 11.647020853508124, 616.7877313612154, 9.447626331431039, -0.43959820054976995, 2.4816868709088094, -2.750057847905056, 0.4561792748463195, 2.087645184846625, 2.4484582366295267, 7.4381838709424795, -6.893590210863344, -2.315015778601703, 0.5299928261871419, -2.7126385035218834], [-2.175944617531237, -2.7854886678942536, -2.6805138652554024, 7.075885776756304, 2.540157782815458, -6.961426083261595, 4.129308287708031, -3.305516572195837, 2.507303811067853, 1.581813090207121, -1.975554092590277, -1.7106403356947824, 0.9306782816187643, 2.6524609296558874, 0.05125736428130269, -24.748794565111762, 5.522038543949287, 11.621731456519612, 0.4594867306683458, 5.259961287638401], [-50.93209914802003, -4.232819673569706, -9.577868264460161, -413.70410586723693, -0.8203491038383983, -0.7296152444324612, -341.64907653349786, 1.4659820269190063, -79.51173704313511, 8.902649280127875, 794.9745830635849, -17.9767304856101, 4.1808614912944755, 0.35413748465710965, -16.468762810903065, 1.2578153405854027, -16.07972839209676, 5.122096007540165, 92.9549157137533, 31.186077241272674], [5.235432514759013, 3.733429274157094, 8.938150715953224, -6.073026161347747, -1.4493948864534325, -4.741468559330024, 13.494107391981109, 2.0926828870492677, -0.30884314614448827, 4.0270083859153125, -4.745606406326142, -4.619561999957394, -4.1058282096872745, 0.5858946958291144, -2.3847365909495353, 7.629496000562843, -4.045800349205887, 1.8999891652685177, -5.018371302156148, -11.004492023481564], [-1582.527652514237, 636.898308765034, -1014.7158736381662, -192804.4686937456, 2947435.735724882, 70.00669764479706, 677105.9724094615, 5840.404975207278, -574288380739.8163, -342.53410796437163, -14772629404045.844, 217.16247873234107, 2302.195729804728, -126.04251984302581, 91.65861150462663, 95.80468217217121, -2097202.517107043, -111.3841853789568, 602.5513157088546, 6318723.3055977], [-16.445780425271916, 18.207779361604384, 2.214153309564381, -5.286413529835192, -0.035034391589043, -5.3939804753199585, 8.66443135508663, -2.8241429849647433, 1.6195895367630708, -0.4475478404231197, -0.09152815237566835, -4.2629057334022695, -3.6619727914432283, 3.7177588751615755, -1.097489634312249, 5.444046459271645, -5.294463955263889, 2.330730862581535, -16.647378472261362, 20.15661703407894], [135448.10201630672, 1234.0816848898205, -731731.0795443676, -362535388.2409955, 4578.488913705593, -347.70754624732814, -26587904.471743036, -1148.9205137896583, 1353.2666668619504, -241.3499999115789, -10899.048818537434, 279.8559615442837, -32.02195212794103, -64.53624380925633, 76.47132824950971, -63.480246369151686, 21678.25527795171, 57.56636304406424, -152921.23940939966, -64409813.96867912], [-223.66870573820168, -112.7361269775549, 86.42508652230913, 1165.2161312406076, -70955382.8818699, 1.1298646583520544, 14453197.8813469, 577.276533909317, 1347.2319432485367, 8.314107957866998, 73804614.94821505, -15.862559971042272, 36.34826315871318, 1.0387742524994164, 6.246673183702392, 11.971532487760886, -5630465.834209513, -17.850788479080826, 270.46426721511955, -90374812.55459955], [16.09396843522097, -5.133891688131217, 16.48406208583054, -29.815012188841333, -9.148070015645075, 7.079908341788638, 22.675083367387433, -1.1351662694288915, 5.753327212265487, 3.4238768663554606, -10.809703687299795, -7.174050863266584, 6.027446118491822, -10.857344273579345, 0.08429978593556145, 4.228002276354687, 2.158343350731182, 0.13073440372532563, 2.1620431998041116, -14.299968174525159], [-12084.769464898633, -153.34647615437925, -1183.0930929032784, 16497.637347103697, 774.1465165498768, 35.80967978211062, -753245961816288.1, -117.38773549513787, -6835976964.4943075, -53.82561024129175, -371687.65671693493, 23.273063343842804, 85.08098012488115, 0.8331906712377218, 63.01096934205805, -16.96651717663633, 39092.045318854056, -29.414729876234066, 3885.58612250587, -5779.260980449461], [4.846641901963127, -3.456077061063734, 0.60804117108727, -6.109079467611654, -6.853487952471451, -1.2559362112593502, 3.1973342126623217, 8.656346972032287, -6.684790729092153, -5.158542520028969, -3.1392372421955597, 0.09553199547855555, 6.063266658072852, 3.607234687314302, 2.6734690413909137, -5.228951519547075, -8.831542838134816, -2.722625682714586, 4.008332195745338, 15.688128583598967], [2.48248698083478, -1.7072696897077722, 2.889215305813559, -2.6841855789902906, 4.578232346866143, 3.2755681279640037, 0.7248612335362299, -6.025001253780708, 9.350319055714062, -0.5959367814359571, -4.233069038582378, 10.815605615053132, -3.0171719915273805, -4.251916476425198, -0.20020466328207803, 3.3800822015328706, -10.348858371196409, 1.824679535215286, -1.7339781327435597, -3.665588854415775], [6.918778161062325, -4.469649876957216, -4.786607139711545, 8.561642164920428, 2.955238874405113, 1.8173954048274699, -4.106014324380264, -2.4224632155910704, 0.328512491843587, 3.2785640635407742, -3.248447982369021, 5.229865602410353, -0.29266169809540554, -0.4380219799020482, -0.4412743853208983, 3.319091848162646, -2.578198794510052, -0.4781464455412864, 0.24172924458308703, -8.527639922495455], [-4.879944644941116, 7.268084296297485, 0.6919617617610712, -7.5567377747540565, 3.217180350021513, 1.3779019006249302, 3.1789717040743635, -6.306447917592833, 5.391289248670405, -5.437013010812586, 2.9857400953179694, 1.3280630623724519, -7.1042113452540505, 8.475381942256178, 7.665202509913648, -6.470816749739907, -8.78332880037966, -0.5718372247948074, -0.1836461864858196, 5.714206740914864], [5.218762734552143, 0.8785428239406623, 5.5587917261521556, 11.390384045773512, -8.603172949755116, -5.242123772877198, 12.140227078468483, 7.989277737662015, -3.02097354129833, 5.116662013267407, -15.36668759751387, -3.7752784247516424, -3.6288360007577913, -1.872464940932078, -5.044454970029764, 9.131251612753825, -7.179276280328345, 7.049163111701223, -6.718443851265812, -3.175813914023651]]]}